digraph Tree {
node [shape=box, fontname="helvetica"] ;
edge [fontname="helvetica"] ;
0 [label="X[0] <= 0.5\ngini = 0.32\nsamples = 5\nvalue = [[5.0, 0.0]\n[3.0, 2.0]\n[2.0, 3.0]]"] ;
1 [label="gini = 0.0\nsamples = 3\nvalue = [[3.0, 0.0]\n[3.0, 0.0]\n[0.0, 3.0]]"] ;
0 -> 1 [labeldistance=2.5, labelangle=45, headlabel="True"] ;
2 [label="gini = 0.0\nsamples = 2\nvalue = [[2.0, 0.0]\n[0.0, 2.0]\n[2.0, 0.0]]"] ;
0 -> 2 [labeldistance=2.5, labelangle=-45, headlabel="False"] ;
}